svm_type c_svc
kernel_type polynomial
degree 2
gamma 1
coef0 1
nr_class 2
total_sv 5
rho 1.6665309232321686
label 1 -1
nr_sv 3 2
SV
0.88871643479870632 1:-1 2:0 
0.15028522296992985 1:0 2:2 
0.36817043235512975 1:0 2:-2 
-0.4857048695492317 1:0 2:1 
-0.92146722057453434 1:0 2:-1 
